digraph Tree {
node [shape=box] ;
0 [label="Sex <= 0.5\ngini = 0.473\nsamples = 871\nvalue = [536, 335]"] ;
1 [label="Pclass <= 2.5\ngini = 0.381\nsamples = 305\nvalue = [78, 227]"] ;
0 -> 1 [labeldistance=2.5, labelangle=45, headlabel="True"] ;
2 [label="Fare <= 28.856\ngini = 0.103\nsamples = 165\nvalue = [9, 156]"] ;
1 -> 2 ;
3 [label="Fare <= 28.231\ngini = 0.185\nsamples = 68\nvalue = [7, 61]"] ;
2 -> 3 ;
4 [label="Age <= 56.0\ngini = 0.163\nsamples = 67\nvalue = [6, 61]"] ;
3 -> 4 ;
5 [label="SibSp <= 0.5\ngini = 0.142\nsamples = 65\nvalue = [5, 60]"] ;
4 -> 5 ;
6 [label="Fare <= 13.25\ngini = 0.087\nsamples = 44\nvalue = [2, 42]"] ;
5 -> 6 ;
7 [label="Fare <= 12.825\ngini = 0.147\nsamples = 25\nvalue = [2, 23]"] ;
6 -> 7 ;
8 [label="gini = 0.0\nsamples = 11\nvalue = [0, 11]"] ;
7 -> 8 ;
9 [label="Age <= 26.0\ngini = 0.245\nsamples = 14\nvalue = [2, 12]"] ;
7 -> 9 ;
10 [label="Age <= 21.0\ngini = 0.444\nsamples = 3\nvalue = [1, 2]"] ;
9 -> 10 ;
11 [label="gini = 0.0\nsamples = 1\nvalue = [0, 1]"] ;
10 -> 11 ;
12 [label="gini = 0.5\nsamples = 2\nvalue = [1, 1]"] ;
10 -> 12 ;
13 [label="Age <= 37.0\ngini = 0.165\nsamples = 11\nvalue = [1, 10]"] ;
9 -> 13 ;
14 [label="gini = 0.0\nsamples = 8\nvalue = [0, 8]"] ;
13 -> 14 ;
15 [label="Age <= 39.0\ngini = 0.444\nsamples = 3\nvalue = [1, 2]"] ;
13 -> 15 ;
16 [label="gini = 0.0\nsamples = 1\nvalue = [1, 0]"] ;
15 -> 16 ;
17 [label="gini = 0.0\nsamples = 2\nvalue = [0, 2]"] ;
15 -> 17 ;
18 [label="gini = 0.0\nsamples = 19\nvalue = [0, 19]"] ;
6 -> 18 ;
19 [label="Age <= 25.0\ngini = 0.245\nsamples = 21\nvalue = [3, 18]"] ;
5 -> 19 ;
20 [label="gini = 0.0\nsamples = 7\nvalue = [0, 7]"] ;
19 -> 20 ;
21 [label="Age <= 27.5\ngini = 0.337\nsamples = 14\nvalue = [3, 11]"] ;
19 -> 21 ;
22 [label="Fare <= 17.429\ngini = 0.444\nsamples = 3\nvalue = [2, 1]"] ;
21 -> 22 ;
23 [label="gini = 0.0\nsamples = 1\nvalue = [0, 1]"] ;
22 -> 23 ;
24 [label="gini = 0.0\nsamples = 2\nvalue = [2, 0]"] ;
22 -> 24 ;
25 [label="Age <= 43.0\ngini = 0.165\nsamples = 11\nvalue = [1, 10]"] ;
21 -> 25 ;
26 [label="gini = 0.0\nsamples = 8\nvalue = [0, 8]"] ;
25 -> 26 ;
27 [label="Age <= 44.5\ngini = 0.444\nsamples = 3\nvalue = [1, 2]"] ;
25 -> 27 ;
28 [label="gini = 0.0\nsamples = 1\nvalue = [1, 0]"] ;
27 -> 28 ;
29 [label="gini = 0.0\nsamples = 2\nvalue = [0, 2]"] ;
27 -> 29 ;
30 [label="Age <= 57.5\ngini = 0.5\nsamples = 2\nvalue = [1, 1]"] ;
4 -> 30 ;
31 [label="gini = 0.0\nsamples = 1\nvalue = [1, 0]"] ;
30 -> 31 ;
32 [label="gini = 0.0\nsamples = 1\nvalue = [0, 1]"] ;
30 -> 32 ;
33 [label="gini = 0.0\nsamples = 1\nvalue = [1, 0]"] ;
3 -> 33 ;
34 [label="Parch <= 1.5\ngini = 0.04\nsamples = 97\nvalue = [2, 95]"] ;
2 -> 34 ;
35 [label="gini = 0.0\nsamples = 81\nvalue = [0, 81]"] ;
34 -> 35 ;
36 [label="Age <= 2.5\ngini = 0.219\nsamples = 16\nvalue = [2, 14]"] ;
34 -> 36 ;
37 [label="gini = 0.0\nsamples = 1\nvalue = [1, 0]"] ;
36 -> 37 ;
38 [label="Age <= 24.5\ngini = 0.124\nsamples = 15\nvalue = [1, 14]"] ;
36 -> 38 ;
39 [label="gini = 0.0\nsamples = 10\nvalue = [0, 10]"] ;
38 -> 39 ;
40 [label="Age <= 28.0\ngini = 0.32\nsamples = 5\nvalue = [1, 4]"] ;
38 -> 40 ;
41 [label="gini = 0.0\nsamples = 1\nvalue = [1, 0]"] ;
40 -> 41 ;
42 [label="gini = 0.0\nsamples = 4\nvalue = [0, 4]"] ;
40 -> 42 ;
43 [label="Fare <= 23.7\ngini = 0.5\nsamples = 140\nvalue = [69, 71]"] ;
1 -> 43 ;
44 [label="Age <= 27.5\ngini = 0.483\nsamples = 115\nvalue = [47, 68]"] ;
43 -> 44 ;
45 [label="Fare <= 8.04\ngini = 0.454\nsamples = 92\nvalue = [32, 60]"] ;
44 -> 45 ;
46 [label="Fare <= 6.988\ngini = 0.375\nsamples = 44\nvalue = [11, 33]"] ;
45 -> 46 ;
47 [label="gini = 0.0\nsamples = 1\nvalue = [1, 0]"] ;
46 -> 47 ;
48 [label="Embarked <= 2.5\ngini = 0.357\nsamples = 43\nvalue = [10, 33]"] ;
46 -> 48 ;
49 [label="Parch <= 1.0\ngini = 0.26\nsamples = 26\nvalue = [4, 22]"] ;
48 -> 49 ;
50 [label="Age <= 20.0\ngini = 0.211\nsamples = 25\nvalue = [3, 22]"] ;
49 -> 50 ;
51 [label="Fare <= 7.681\ngini = 0.159\nsamples = 23\nvalue = [2, 21]"] ;
50 -> 51 ;
52 [label="Embarked <= 1.5\ngini = 0.375\nsamples = 4\nvalue = [1, 3]"] ;
51 -> 52 ;
53 [label="gini = 0.0\nsamples = 3\nvalue = [0, 3]"] ;
52 -> 53 ;
54 [label="gini = 0.0\nsamples = 1\nvalue = [1, 0]"] ;
52 -> 54 ;
55 [label="Fare <= 7.769\ngini = 0.1\nsamples = 19\nvalue = [1, 18]"] ;
51 -> 55 ;
56 [label="Fare <= 7.744\ngini = 0.153\nsamples = 12\nvalue = [1, 11]"] ;
55 -> 56 ;
57 [label="gini = 0.0\nsamples = 3\nvalue = [0, 3]"] ;
56 -> 57 ;
58 [label="Age <= 7.5\ngini = 0.198\nsamples = 9\nvalue = [1, 8]"] ;
56 -> 58 ;
59 [label="gini = 0.219\nsamples = 8\nvalue = [1, 7]"] ;
58 -> 59 ;
60 [label="gini = 0.0\nsamples = 1\nvalue = [0, 1]"] ;
58 -> 60 ;
61 [label="gini = 0.0\nsamples = 7\nvalue = [0, 7]"] ;
55 -> 61 ;
62 [label="Age <= 21.5\ngini = 0.5\nsamples = 2\nvalue = [1, 1]"] ;
50 -> 62 ;
63 [label="gini = 0.0\nsamples = 1\nvalue = [1, 0]"] ;
62 -> 63 ;
64 [label="gini = 0.0\nsamples = 1\nvalue = [0, 1]"] ;
62 -> 64 ;
65 [label="gini = 0.0\nsamples = 1\nvalue = [1, 0]"] ;
49 -> 65 ;
66 [label="Age <= 15.5\ngini = 0.457\nsamples = 17\nvalue = [6, 11]"] ;
48 -> 66 ;
67 [label="gini = 0.0\nsamples = 2\nvalue = [2, 0]"] ;
66 -> 67 ;
68 [label="Fare <= 7.762\ngini = 0.391\nsamples = 15\nvalue = [4, 11]"] ;
66 -> 68 ;
69 [label="gini = 0.0\nsamples = 5\nvalue = [0, 5]"] ;
68 -> 69 ;
70 [label="Age <= 25.5\ngini = 0.48\nsamples = 10\nvalue = [4, 6]"] ;
68 -> 70 ;
71 [label="Age <= 22.5\ngini = 0.49\nsamples = 7\nvalue = [4, 3]"] ;
70 -> 71 ;
72 [label="SibSp <= 0.5\ngini = 0.375\nsamples = 4\nvalue = [1, 3]"] ;
71 -> 72 ;
73 [label="Age <= 20.0\ngini = 0.5\nsamples = 2\nvalue = [1, 1]"] ;
72 -> 73 ;
74 [label="gini = 0.0\nsamples = 1\nvalue = [1, 0]"] ;
73 -> 74 ;
75 [label="gini = 0.0\nsamples = 1\nvalue = [0, 1]"] ;
73 -> 75 ;
76 [label="gini = 0.0\nsamples = 2\nvalue = [0, 2]"] ;
72 -> 76 ;
77 [label="gini = 0.0\nsamples = 3\nvalue = [3, 0]"] ;
71 -> 77 ;
78 [label="gini = 0.0\nsamples = 3\nvalue = [0, 3]"] ;
70 -> 78 ;
79 [label="Fare <= 9.84\ngini = 0.492\nsamples = 48\nvalue = [21, 27]"] ;
45 -> 79 ;
80 [label="Parch <= 0.5\ngini = 0.198\nsamples = 9\nvalue = [8, 1]"] ;
79 -> 80 ;
81 [label="gini = 0.0\nsamples = 8\nvalue = [8, 0]"] ;
80 -> 81 ;
82 [label="gini = 0.0\nsamples = 1\nvalue = [0, 1]"] ;
80 -> 82 ;
83 [label="SibSp <= 2.5\ngini = 0.444\nsamples = 39\nvalue = [13, 26]"] ;
79 -> 83 ;
84 [label="Fare <= 15.373\ngini = 0.418\nsamples = 37\nvalue = [11, 26]"] ;
83 -> 84 ;
85 [label="Fare <= 13.935\ngini = 0.498\nsamples = 17\nvalue = [8, 9]"] ;
84 -> 85 ;
86 [label="Fare <= 10.798\ngini = 0.198\nsamples = 9\nvalue = [1, 8]"] ;
85 -> 86 ;
87 [label="Age <= 10.0\ngini = 0.5\nsamples = 2\nvalue = [1, 1]"] ;
86 -> 87 ;
88 [label="gini = 0.0\nsamples = 1\nvalue = [1, 0]"] ;
87 -> 88 ;
89 [label="gini = 0.0\nsamples = 1\nvalue = [0, 1]"] ;
87 -> 89 ;
90 [label="gini = 0.0\nsamples = 7\nvalue = [0, 7]"] ;
86 -> 90 ;
91 [label="Age <= 14.75\ngini = 0.219\nsamples = 8\nvalue = [7, 1]"] ;
85 -> 91 ;
92 [label="gini = 0.0\nsamples = 5\nvalue = [5, 0]"] ;
91 -> 92 ;
93 [label="SibSp <= 0.5\ngini = 0.444\nsamples = 3\nvalue = [2, 1]"] ;
91 -> 93 ;
94 [label="gini = 0.0\nsamples = 2\nvalue = [2, 0]"] ;
93 -> 94 ;
95 [label="gini = 0.0\nsamples = 1\nvalue = [0, 1]"] ;
93 -> 95 ;
96 [label="Age <= 11.5\ngini = 0.255\nsamples = 20\nvalue = [3, 17]"] ;
84 -> 96 ;
97 [label="gini = 0.0\nsamples = 14\nvalue = [0, 14]"] ;
96 -> 97 ;
98 [label="Age <= 21.0\ngini = 0.5\nsamples = 6\nvalue = [3, 3]"] ;
96 -> 98 ;
99 [label="gini = 0.0\nsamples = 2\nvalue = [2, 0]"] ;
98 -> 99 ;
100 [label="Age <= 25.0\ngini = 0.375\nsamples = 4\nvalue = [1, 3]"] ;
98 -> 100 ;
101 [label="gini = 0.0\nsamples = 3\nvalue = [0, 3]"] ;
100 -> 101 ;
102 [label="gini = 0.0\nsamples = 1\nvalue = [1, 0]"] ;
100 -> 102 ;
103 [label="gini = 0.0\nsamples = 2\nvalue = [2, 0]"] ;
83 -> 103 ;
104 [label="Fare <= 8.673\ngini = 0.454\nsamples = 23\nvalue = [15, 8]"] ;
44 -> 104 ;
105 [label="gini = 0.0\nsamples = 5\nvalue = [5, 0]"] ;
104 -> 105 ;
106 [label="Age <= 36.5\ngini = 0.494\nsamples = 18\nvalue = [10, 8]"] ;
104 -> 106 ;
107 [label="Age <= 32.5\ngini = 0.486\nsamples = 12\nvalue = [5, 7]"] ;
106 -> 107 ;
108 [label="SibSp <= 0.5\ngini = 0.494\nsamples = 9\nvalue = [5, 4]"] ;
107 -> 108 ;
109 [label="Parch <= 3.0\ngini = 0.375\nsamples = 4\nvalue = [1, 3]"] ;
108 -> 109 ;
110 [label="gini = 0.0\nsamples = 3\nvalue = [0, 3]"] ;
109 -> 110 ;
111 [label="gini = 0.0\nsamples = 1\nvalue = [1, 0]"] ;
109 -> 111 ;
112 [label="Fare <= 19.263\ngini = 0.32\nsamples = 5\nvalue = [4, 1]"] ;
108 -> 112 ;
113 [label="gini = 0.0\nsamples = 4\nvalue = [4, 0]"] ;
112 -> 113 ;
114 [label="gini = 0.0\nsamples = 1\nvalue = [0, 1]"] ;
112 -> 114 ;
115 [label="gini = 0.0\nsamples = 3\nvalue = [0, 3]"] ;
107 -> 115 ;
116 [label="Age <= 55.0\ngini = 0.278\nsamples = 6\nvalue = [5, 1]"] ;
106 -> 116 ;
117 [label="gini = 0.0\nsamples = 5\nvalue = [5, 0]"] ;
116 -> 117 ;
118 [label="gini = 0.0\nsamples = 1\nvalue = [0, 1]"] ;
116 -> 118 ;
119 [label="Embarked <= 2.5\ngini = 0.211\nsamples = 25\nvalue = [22, 3]"] ;
43 -> 119 ;
120 [label="gini = 0.0\nsamples = 1\nvalue = [0, 1]"] ;
119 -> 120 ;
121 [label="Fare <= 31.331\ngini = 0.153\nsamples = 24\nvalue = [22, 2]"] ;
119 -> 121 ;
122 [label="gini = 0.0\nsamples = 13\nvalue = [13, 0]"] ;
121 -> 122 ;
123 [label="Fare <= 32.881\ngini = 0.298\nsamples = 11\nvalue = [9, 2]"] ;
121 -> 123 ;
124 [label="gini = 0.0\nsamples = 2\nvalue = [0, 2]"] ;
123 -> 124 ;
125 [label="gini = 0.0\nsamples = 9\nvalue = [9, 0]"] ;
123 -> 125 ;
126 [label="Pclass <= 1.5\ngini = 0.309\nsamples = 566\nvalue = [458, 108]"] ;
0 -> 126 [labeldistance=2.5, labelangle=-45, headlabel="False"] ;
127 [label="Age <= 53.0\ngini = 0.464\nsamples = 120\nvalue = [76, 44]"] ;
126 -> 127 ;
128 [label="Fare <= 26.144\ngini = 0.487\nsamples = 98\nvalue = [57, 41]"] ;
127 -> 128 ;
129 [label="gini = 0.0\nsamples = 8\nvalue = [8, 0]"] ;
128 -> 129 ;
130 [label="Fare <= 27.135\ngini = 0.496\nsamples = 90\nvalue = [49, 41]"] ;
128 -> 130 ;
131 [label="Age <= 13.5\ngini = 0.26\nsamples = 13\nvalue = [2, 11]"] ;
130 -> 131 ;
132 [label="gini = 0.5\nsamples = 2\nvalue = [1, 1]"] ;
131 -> 132 ;
133 [label="Age <= 43.5\ngini = 0.165\nsamples = 11\nvalue = [1, 10]"] ;
131 -> 133 ;
134 [label="gini = 0.0\nsamples = 7\nvalue = [0, 7]"] ;
133 -> 134 ;
135 [label="Age <= 46.5\ngini = 0.375\nsamples = 4\nvalue = [1, 3]"] ;
133 -> 135 ;
136 [label="gini = 0.5\nsamples = 2\nvalue = [1, 1]"] ;
135 -> 136 ;
137 [label="gini = 0.0\nsamples = 2\nvalue = [0, 2]"] ;
135 -> 137 ;
138 [label="Parch <= 1.5\ngini = 0.476\nsamples = 77\nvalue = [47, 30]"] ;
130 -> 138 ;
139 [label="Fare <= 379.925\ngini = 0.459\nsamples = 70\nvalue = [45, 25]"] ;
138 -> 139 ;
140 [label="Fare <= 29.1\ngini = 0.448\nsamples = 68\nvalue = [45, 23]"] ;
139 -> 140 ;
141 [label="gini = 0.0\nsamples = 5\nvalue = [5, 0]"] ;
140 -> 141 ;
142 [label="Fare <= 30.598\ngini = 0.464\nsamples = 63\nvalue = [40, 23]"] ;
140 -> 142 ;
143 [label="Parch <= 0.5\ngini = 0.375\nsamples = 8\nvalue = [2, 6]"] ;
142 -> 143 ;
144 [label="Age <= 28.0\ngini = 0.245\nsamples = 7\nvalue = [1, 6]"] ;
143 -> 144 ;
145 [label="gini = 0.0\nsamples = 4\nvalue = [0, 4]"] ;
144 -> 145 ;
146 [label="Fare <= 30.25\ngini = 0.444\nsamples = 3\nvalue = [1, 2]"] ;
144 -> 146 ;
147 [label="gini = 0.0\nsamples = 1\nvalue = [1, 0]"] ;
146 -> 147 ;
148 [label="gini = 0.0\nsamples = 2\nvalue = [0, 2]"] ;
146 -> 148 ;
149 [label="gini = 0.0\nsamples = 1\nvalue = [1, 0]"] ;
143 -> 149 ;
150 [label="Age <= 22.5\ngini = 0.427\nsamples = 55\nvalue = [38, 17]"] ;
142 -> 150 ;
151 [label="Fare <= 37.55\ngini = 0.133\nsamples = 14\nvalue = [13, 1]"] ;
150 -> 151 ;
152 [label="Fare <= 35.25\ngini = 0.375\nsamples = 4\nvalue = [3, 1]"] ;
151 -> 152 ;
153 [label="gini = 0.0\nsamples = 3\nvalue = [3, 0]"] ;
152 -> 153 ;
154 [label="gini = 0.0\nsamples = 1\nvalue = [0, 1]"] ;
152 -> 154 ;
155 [label="gini = 0.0\nsamples = 10\nvalue = [10, 0]"] ;
151 -> 155 ;
156 [label="Age <= 27.5\ngini = 0.476\nsamples = 41\nvalue = [25, 16]"] ;
150 -> 156 ;
157 [label="Age <= 24.5\ngini = 0.408\nsamples = 7\nvalue = [2, 5]"] ;
156 -> 157 ;
158 [label="Age <= 23.5\ngini = 0.444\nsamples = 3\nvalue = [2, 1]"] ;
157 -> 158 ;
159 [label="gini = 0.0\nsamples = 1\nvalue = [0, 1]"] ;
158 -> 159 ;
160 [label="gini = 0.0\nsamples = 2\nvalue = [2, 0]"] ;
158 -> 160 ;
161 [label="gini = 0.0\nsamples = 4\nvalue = [0, 4]"] ;
157 -> 161 ;
162 [label="Fare <= 32.51\ngini = 0.438\nsamples = 34\nvalue = [23, 11]"] ;
156 -> 162 ;
163 [label="gini = 0.0\nsamples = 1\nvalue = [0, 1]"] ;
162 -> 163 ;
164 [label="SibSp <= 0.5\ngini = 0.422\nsamples = 33\nvalue = [23, 10]"] ;
162 -> 164 ;
165 [label="Age <= 29.5\ngini = 0.165\nsamples = 11\nvalue = [10, 1]"] ;
164 -> 165 ;
166 [label="Fare <= 41.3\ngini = 0.5\nsamples = 2\nvalue = [1, 1]"] ;
165 -> 166 ;
167 [label="gini = 0.0\nsamples = 1\nvalue = [0, 1]"] ;
166 -> 167 ;
168 [label="gini = 0.0\nsamples = 1\nvalue = [1, 0]"] ;
166 -> 168 ;
169 [label="gini = 0.0\nsamples = 9\nvalue = [9, 0]"] ;
165 -> 169 ;
170 [label="Age <= 30.0\ngini = 0.483\nsamples = 22\nvalue = [13, 9]"] ;
164 -> 170 ;
171 [label="gini = 0.0\nsamples = 2\nvalue = [2, 0]"] ;
170 -> 171 ;
172 [label="Fare <= 122.267\ngini = 0.495\nsamples = 20\nvalue = [11, 9]"] ;
170 -> 172 ;
173 [label="Age <= 49.5\ngini = 0.488\nsamples = 19\nvalue = [11, 8]"] ;
172 -> 173 ;
174 [label="Age <= 47.0\ngini = 0.5\nsamples = 16\nvalue = [8, 8]"] ;
173 -> 174 ;
175 [label="Age <= 43.0\ngini = 0.463\nsamples = 11\nvalue = [7, 4]"] ;
174 -> 175 ;
176 [label="Fare <= 52.277\ngini = 0.5\nsamples = 8\nvalue = [4, 4]"] ;
175 -> 176 ;
177 [label="gini = 0.0\nsamples = 2\nvalue = [2, 0]"] ;
176 -> 177 ;
178 [label="Fare <= 52.827\ngini = 0.444\nsamples = 6\nvalue = [2, 4]"] ;
176 -> 178 ;
179 [label="gini = 0.0\nsamples = 2\nvalue = [0, 2]"] ;
178 -> 179 ;
180 [label="Age <= 33.5\ngini = 0.5\nsamples = 4\nvalue = [2, 2]"] ;
178 -> 180 ;
181 [label="gini = 0.0\nsamples = 1\nvalue = [0, 1]"] ;
180 -> 181 ;
182 [label="Age <= 37.5\ngini = 0.444\nsamples = 3\nvalue = [2, 1]"] ;
180 -> 182 ;
183 [label="gini = 0.0\nsamples = 2\nvalue = [2, 0]"] ;
182 -> 183 ;
184 [label="gini = 0.0\nsamples = 1\nvalue = [0, 1]"] ;
182 -> 184 ;
185 [label="gini = 0.0\nsamples = 3\nvalue = [3, 0]"] ;
175 -> 185 ;
186 [label="Parch <= 0.5\ngini = 0.32\nsamples = 5\nvalue = [1, 4]"] ;
174 -> 186 ;
187 [label="gini = 0.0\nsamples = 4\nvalue = [0, 4]"] ;
186 -> 187 ;
188 [label="gini = 0.0\nsamples = 1\nvalue = [1, 0]"] ;
186 -> 188 ;
189 [label="gini = 0.0\nsamples = 3\nvalue = [3, 0]"] ;
173 -> 189 ;
190 [label="gini = 0.0\nsamples = 1\nvalue = [0, 1]"] ;
172 -> 190 ;
191 [label="gini = 0.0\nsamples = 2\nvalue = [0, 2]"] ;
139 -> 191 ;
192 [label="Fare <= 181.525\ngini = 0.408\nsamples = 7\nvalue = [2, 5]"] ;
138 -> 192 ;
193 [label="gini = 0.0\nsamples = 5\nvalue = [0, 5]"] ;
192 -> 193 ;
194 [label="gini = 0.0\nsamples = 2\nvalue = [2, 0]"] ;
192 -> 194 ;
195 [label="Age <= 75.5\ngini = 0.236\nsamples = 22\nvalue = [19, 3]"] ;
127 -> 195 ;
196 [label="Embarked <= 2.0\ngini = 0.172\nsamples = 21\nvalue = [19, 2]"] ;
195 -> 196 ;
197 [label="SibSp <= 0.5\ngini = 0.375\nsamples = 8\nvalue = [6, 2]"] ;
196 -> 197 ;
198 [label="Age <= 57.0\ngini = 0.245\nsamples = 7\nvalue = [6, 1]"] ;
197 -> 198 ;
199 [label="Fare <= 33.098\ngini = 0.5\nsamples = 2\nvalue = [1, 1]"] ;
198 -> 199 ;
200 [label="gini = 0.0\nsamples = 1\nvalue = [1, 0]"] ;
199 -> 200 ;
201 [label="gini = 0.0\nsamples = 1\nvalue = [0, 1]"] ;
199 -> 201 ;
202 [label="gini = 0.0\nsamples = 5\nvalue = [5, 0]"] ;
198 -> 202 ;
203 [label="gini = 0.0\nsamples = 1\nvalue = [0, 1]"] ;
197 -> 203 ;
204 [label="gini = 0.0\nsamples = 13\nvalue = [13, 0]"] ;
196 -> 204 ;
205 [label="gini = 0.0\nsamples = 1\nvalue = [0, 1]"] ;
195 -> 205 ;
206 [label="Parch <= 0.5\ngini = 0.246\nsamples = 446\nvalue = [382, 64]"] ;
126 -> 206 ;
207 [label="Fare <= 43.283\ngini = 0.207\nsamples = 376\nvalue = [332, 44]"] ;
206 -> 207 ;
208 [label="Age <= 32.25\ngini = 0.191\nsamples = 364\nvalue = [325, 39]"] ;
207 -> 208 ;
209 [label="Age <= 30.75\ngini = 0.212\nsamples = 274\nvalue = [241, 33]"] ;
208 -> 209 ;
210 [label="Embarked <= 1.5\ngini = 0.187\nsamples = 259\nvalue = [232, 27]"] ;
209 -> 210 ;
211 [label="Age <= 11.5\ngini = 0.313\nsamples = 36\nvalue = [29, 7]"] ;
210 -> 211 ;
212 [label="Pclass <= 2.5\ngini = 0.188\nsamples = 19\nvalue = [17, 2]"] ;
211 -> 212 ;
213 [label="Fare <= 14.456\ngini = 0.5\nsamples = 2\nvalue = [1, 1]"] ;
212 -> 213 ;
214 [label="gini = 0.0\nsamples = 1\nvalue = [0, 1]"] ;
213 -> 214 ;
215 [label="gini = 0.0\nsamples = 1\nvalue = [1, 0]"] ;
213 -> 215 ;
216 [label="Fare <= 7.562\ngini = 0.111\nsamples = 17\nvalue = [16, 1]"] ;
212 -> 216 ;
217 [label="Fare <= 7.227\ngini = 0.165\nsamples = 11\nvalue = [10, 1]"] ;
216 -> 217 ;
218 [label="gini = 0.0\nsamples = 5\nvalue = [5, 0]"] ;
217 -> 218 ;
219 [label="gini = 0.278\nsamples = 6\nvalue = [5, 1]"] ;
217 -> 219 ;
220 [label="gini = 0.0\nsamples = 6\nvalue = [6, 0]"] ;
216 -> 220 ;
221 [label="Age <= 22.5\ngini = 0.415\nsamples = 17\nvalue = [12, 5]"] ;
211 -> 221 ;
222 [label="Fare <= 5.619\ngini = 0.48\nsamples = 5\nvalue = [2, 3]"] ;
221 -> 222 ;
223 [label="gini = 0.0\nsamples = 1\nvalue = [1, 0]"] ;
222 -> 223 ;
224 [label="Age <= 21.0\ngini = 0.375\nsamples = 4\nvalue = [1, 3]"] ;
222 -> 224 ;
225 [label="gini = 0.0\nsamples = 2\nvalue = [0, 2]"] ;
224 -> 225 ;
226 [label="Fare <= 7.227\ngini = 0.5\nsamples = 2\nvalue = [1, 1]"] ;
224 -> 226 ;
227 [label="gini = 0.0\nsamples = 1\nvalue = [0, 1]"] ;
226 -> 227 ;
228 [label="gini = 0.0\nsamples = 1\nvalue = [1, 0]"] ;
226 -> 228 ;
229 [label="Fare <= 7.562\ngini = 0.278\nsamples = 12\nvalue = [10, 2]"] ;
221 -> 229 ;
230 [label="gini = 0.0\nsamples = 5\nvalue = [5, 0]"] ;
229 -> 230 ;
231 [label="SibSp <= 0.5\ngini = 0.408\nsamples = 7\nvalue = [5, 2]"] ;
229 -> 231 ;
232 [label="Pclass <= 2.5\ngini = 0.444\nsamples = 3\nvalue = [1, 2]"] ;
231 -> 232 ;
233 [label="gini = 0.0\nsamples = 1\nvalue = [1, 0]"] ;
232 -> 233 ;
234 [label="gini = 0.0\nsamples = 2\nvalue = [0, 2]"] ;
232 -> 234 ;
235 [label="gini = 0.0\nsamples = 4\nvalue = [4, 0]"] ;
231 -> 235 ;
236 [label="Age <= 26.5\ngini = 0.163\nsamples = 223\nvalue = [203, 20]"] ;
210 -> 236 ;
237 [label="SibSp <= 1.5\ngini = 0.14\nsamples = 185\nvalue = [171, 14]"] ;
236 -> 237 ;
238 [label="Fare <= 8.135\ngini = 0.133\nsamples = 181\nvalue = [168, 13]"] ;
237 -> 238 ;
239 [label="Fare <= 8.081\ngini = 0.161\nsamples = 125\nvalue = [114, 11]"] ;
238 -> 239 ;
240 [label="SibSp <= 0.5\ngini = 0.148\nsamples = 124\nvalue = [114, 10]"] ;
239 -> 240 ;
241 [label="Age <= 7.5\ngini = 0.128\nsamples = 116\nvalue = [108, 8]"] ;
240 -> 241 ;
242 [label="Fare <= 7.802\ngini = 0.07\nsamples = 55\nvalue = [53, 2]"] ;
241 -> 242 ;
243 [label="Fare <= 7.762\ngini = 0.124\nsamples = 30\nvalue = [28, 2]"] ;
242 -> 243 ;
244 [label="Fare <= 7.744\ngini = 0.069\nsamples = 28\nvalue = [27, 1]"] ;
243 -> 244 ;
245 [label="gini = 0.0\nsamples = 18\nvalue = [18, 0]"] ;
244 -> 245 ;
246 [label="gini = 0.18\nsamples = 10\nvalue = [9, 1]"] ;
244 -> 246 ;
247 [label="gini = 0.5\nsamples = 2\nvalue = [1, 1]"] ;
243 -> 247 ;
248 [label="gini = 0.0\nsamples = 25\nvalue = [25, 0]"] ;
242 -> 248 ;
249 [label="Fare <= 3.375\ngini = 0.177\nsamples = 61\nvalue = [55, 6]"] ;
241 -> 249 ;
250 [label="Age <= 22.0\ngini = 0.5\nsamples = 2\nvalue = [1, 1]"] ;
249 -> 250 ;
251 [label="gini = 0.0\nsamples = 1\nvalue = [1, 0]"] ;
250 -> 251 ;
252 [label="gini = 0.0\nsamples = 1\nvalue = [0, 1]"] ;
250 -> 252 ;
253 [label="Fare <= 7.988\ngini = 0.155\nsamples = 59\nvalue = [54, 5]"] ;
249 -> 253 ;
254 [label="Fare <= 7.196\ngini = 0.083\nsamples = 46\nvalue = [44, 2]"] ;
253 -> 254 ;
255 [label="Fare <= 7.133\ngini = 0.245\nsamples = 7\nvalue = [6, 1]"] ;
254 -> 255 ;
256 [label="gini = 0.0\nsamples = 6\nvalue = [6, 0]"] ;
255 -> 256 ;
257 [label="gini = 0.0\nsamples = 1\nvalue = [0, 1]"] ;
255 -> 257 ;
258 [label="Age <= 21.5\ngini = 0.05\nsamples = 39\nvalue = [38, 1]"] ;
254 -> 258 ;
259 [label="Age <= 20.75\ngini = 0.095\nsamples = 20\nvalue = [19, 1]"] ;
258 -> 259 ;
260 [label="gini = 0.0\nsamples = 12\nvalue = [12, 0]"] ;
259 -> 260 ;
261 [label="Fare <= 7.798\ngini = 0.219\nsamples = 8\nvalue = [7, 1]"] ;
259 -> 261 ;
262 [label="Fare <= 7.785\ngini = 0.375\nsamples = 4\nvalue = [3, 1]"] ;
261 -> 262 ;
263 [label="gini = 0.0\nsamples = 3\nvalue = [3, 0]"] ;
262 -> 263 ;
264 [label="gini = 0.0\nsamples = 1\nvalue = [0, 1]"] ;
262 -> 264 ;
265 [label="gini = 0.0\nsamples = 4\nvalue = [4, 0]"] ;
261 -> 265 ;
266 [label="gini = 0.0\nsamples = 19\nvalue = [19, 0]"] ;
258 -> 266 ;
267 [label="Age <= 19.5\ngini = 0.355\nsamples = 13\nvalue = [10, 3]"] ;
253 -> 267 ;
268 [label="Age <= 17.0\ngini = 0.48\nsamples = 5\nvalue = [2, 3]"] ;
267 -> 268 ;
269 [label="gini = 0.5\nsamples = 2\nvalue = [1, 1]"] ;
268 -> 269 ;
270 [label="Age <= 18.5\ngini = 0.444\nsamples = 3\nvalue = [1, 2]"] ;
268 -> 270 ;
271 [label="gini = 0.0\nsamples = 1\nvalue = [0, 1]"] ;
270 -> 271 ;
272 [label="gini = 0.5\nsamples = 2\nvalue = [1, 1]"] ;
270 -> 272 ;
273 [label="gini = 0.0\nsamples = 8\nvalue = [8, 0]"] ;
267 -> 273 ;
274 [label="Fare <= 7.89\ngini = 0.375\nsamples = 8\nvalue = [6, 2]"] ;
240 -> 274 ;
275 [label="Fare <= 7.762\ngini = 0.245\nsamples = 7\nvalue = [6, 1]"] ;
274 -> 275 ;
276 [label="gini = 0.0\nsamples = 4\nvalue = [4, 0]"] ;
275 -> 276 ;
277 [label="Age <= 25.5\ngini = 0.444\nsamples = 3\nvalue = [2, 1]"] ;
275 -> 277 ;
278 [label="gini = 0.5\nsamples = 2\nvalue = [1, 1]"] ;
277 -> 278 ;
279 [label="gini = 0.0\nsamples = 1\nvalue = [1, 0]"] ;
277 -> 279 ;
280 [label="gini = 0.0\nsamples = 1\nvalue = [0, 1]"] ;
274 -> 280 ;
281 [label="gini = 0.0\nsamples = 1\nvalue = [0, 1]"] ;
239 -> 281 ;
282 [label="Pclass <= 2.5\ngini = 0.069\nsamples = 56\nvalue = [54, 2]"] ;
238 -> 282 ;
283 [label="Age <= 7.5\ngini = 0.172\nsamples = 21\nvalue = [19, 2]"] ;
282 -> 283 ;
284 [label="gini = 0.0\nsamples = 1\nvalue = [0, 1]"] ;
283 -> 284 ;
285 [label="Fare <= 11.0\ngini = 0.095\nsamples = 20\nvalue = [19, 1]"] ;
283 -> 285 ;
286 [label="Age <= 21.0\ngini = 0.278\nsamples = 6\nvalue = [5, 1]"] ;
285 -> 286 ;
287 [label="Age <= 17.5\ngini = 0.444\nsamples = 3\nvalue = [2, 1]"] ;
286 -> 287 ;
288 [label="gini = 0.0\nsamples = 1\nvalue = [1, 0]"] ;
287 -> 288 ;
289 [label="gini = 0.5\nsamples = 2\nvalue = [1, 1]"] ;
287 -> 289 ;
290 [label="gini = 0.0\nsamples = 3\nvalue = [3, 0]"] ;
286 -> 290 ;
291 [label="gini = 0.0\nsamples = 14\nvalue = [14, 0]"] ;
285 -> 291 ;
292 [label="gini = 0.0\nsamples = 35\nvalue = [35, 0]"] ;
282 -> 292 ;
293 [label="Age <= 7.5\ngini = 0.375\nsamples = 4\nvalue = [3, 1]"] ;
237 -> 293 ;
294 [label="gini = 0.0\nsamples = 1\nvalue = [0, 1]"] ;
293 -> 294 ;
295 [label="gini = 0.0\nsamples = 3\nvalue = [3, 0]"] ;
293 -> 295 ;
296 [label="Age <= 27.5\ngini = 0.266\nsamples = 38\nvalue = [32, 6]"] ;
236 -> 296 ;
297 [label="Fare <= 7.846\ngini = 0.5\nsamples = 6\nvalue = [3, 3]"] ;
296 -> 297 ;
298 [label="gini = 0.0\nsamples = 2\nvalue = [0, 2]"] ;
297 -> 298 ;
299 [label="Pclass <= 2.5\ngini = 0.375\nsamples = 4\nvalue = [3, 1]"] ;
297 -> 299 ;
300 [label="gini = 0.0\nsamples = 2\nvalue = [2, 0]"] ;
299 -> 300 ;
301 [label="Fare <= 8.279\ngini = 0.5\nsamples = 2\nvalue = [1, 1]"] ;
299 -> 301 ;
302 [label="gini = 0.0\nsamples = 1\nvalue = [1, 0]"] ;
301 -> 302 ;
303 [label="gini = 0.0\nsamples = 1\nvalue = [0, 1]"] ;
301 -> 303 ;
304 [label="Embarked <= 2.5\ngini = 0.17\nsamples = 32\nvalue = [29, 3]"] ;
296 -> 304 ;
305 [label="gini = 0.0\nsamples = 1\nvalue = [0, 1]"] ;
304 -> 305 ;
306 [label="Fare <= 9.492\ngini = 0.121\nsamples = 31\nvalue = [29, 2]"] ;
304 -> 306 ;
307 [label="gini = 0.0\nsamples = 15\nvalue = [15, 0]"] ;
306 -> 307 ;
308 [label="Fare <= 10.0\ngini = 0.219\nsamples = 16\nvalue = [14, 2]"] ;
306 -> 308 ;
309 [label="Age <= 28.5\ngini = 0.5\nsamples = 4\nvalue = [2, 2]"] ;
308 -> 309 ;
310 [label="gini = 0.0\nsamples = 2\nvalue = [2, 0]"] ;
309 -> 310 ;
311 [label="gini = 0.0\nsamples = 2\nvalue = [0, 2]"] ;
309 -> 311 ;
312 [label="gini = 0.0\nsamples = 12\nvalue = [12, 0]"] ;
308 -> 312 ;
313 [label="Fare <= 20.925\ngini = 0.48\nsamples = 15\nvalue = [9, 6]"] ;
209 -> 313 ;
314 [label="Fare <= 7.815\ngini = 0.459\nsamples = 14\nvalue = [9, 5]"] ;
313 -> 314 ;
315 [label="gini = 0.0\nsamples = 2\nvalue = [2, 0]"] ;
314 -> 315 ;
316 [label="Fare <= 8.206\ngini = 0.486\nsamples = 12\nvalue = [7, 5]"] ;
314 -> 316 ;
317 [label="Fare <= 7.875\ngini = 0.49\nsamples = 7\nvalue = [3, 4]"] ;
316 -> 317 ;
318 [label="gini = 0.0\nsamples = 1\nvalue = [0, 1]"] ;
317 -> 318 ;
319 [label="Age <= 31.5\ngini = 0.5\nsamples = 6\nvalue = [3, 3]"] ;
317 -> 319 ;
320 [label="gini = 0.0\nsamples = 1\nvalue = [0, 1]"] ;
319 -> 320 ;
321 [label="Fare <= 7.988\ngini = 0.48\nsamples = 5\nvalue = [3, 2]"] ;
319 -> 321 ;
322 [label="Fare <= 7.91\ngini = 0.375\nsamples = 4\nvalue = [3, 1]"] ;
321 -> 322 ;
323 [label="gini = 0.0\nsamples = 1\nvalue = [1, 0]"] ;
322 -> 323 ;
324 [label="gini = 0.444\nsamples = 3\nvalue = [2, 1]"] ;
322 -> 324 ;
325 [label="gini = 0.0\nsamples = 1\nvalue = [0, 1]"] ;
321 -> 325 ;
326 [label="Fare <= 11.75\ngini = 0.32\nsamples = 5\nvalue = [4, 1]"] ;
316 -> 326 ;
327 [label="gini = 0.0\nsamples = 3\nvalue = [3, 0]"] ;
326 -> 327 ;
328 [label="Fare <= 14.425\ngini = 0.5\nsamples = 2\nvalue = [1, 1]"] ;
326 -> 328 ;
329 [label="gini = 0.0\nsamples = 1\nvalue = [0, 1]"] ;
328 -> 329 ;
330 [label="gini = 0.0\nsamples = 1\nvalue = [1, 0]"] ;
328 -> 330 ;
331 [label="gini = 0.0\nsamples = 1\nvalue = [0, 1]"] ;
313 -> 331 ;
332 [label="Fare <= 7.91\ngini = 0.124\nsamples = 90\nvalue = [84, 6]"] ;
208 -> 332 ;
333 [label="gini = 0.0\nsamples = 31\nvalue = [31, 0]"] ;
332 -> 333 ;
334 [label="Fare <= 7.988\ngini = 0.183\nsamples = 59\nvalue = [53, 6]"] ;
332 -> 334 ;
335 [label="Age <= 38.0\ngini = 0.5\nsamples = 4\nvalue = [2, 2]"] ;
334 -> 335 ;
336 [label="gini = 0.0\nsamples = 1\nvalue = [1, 0]"] ;
335 -> 336 ;
337 [label="Age <= 41.5\ngini = 0.444\nsamples = 3\nvalue = [1, 2]"] ;
335 -> 337 ;
338 [label="gini = 0.5\nsamples = 2\nvalue = [1, 1]"] ;
337 -> 338 ;
339 [label="gini = 0.0\nsamples = 1\nvalue = [0, 1]"] ;
337 -> 339 ;
340 [label="Age <= 60.5\ngini = 0.135\nsamples = 55\nvalue = [51, 4]"] ;
334 -> 340 ;
341 [label="Fare <= 13.25\ngini = 0.109\nsamples = 52\nvalue = [49, 3]"] ;
340 -> 341 ;
342 [label="Fare <= 12.938\ngini = 0.165\nsamples = 33\nvalue = [30, 3]"] ;
341 -> 342 ;
343 [label="Age <= 44.5\ngini = 0.087\nsamples = 22\nvalue = [21, 1]"] ;
342 -> 343 ;
344 [label="gini = 0.0\nsamples = 16\nvalue = [16, 0]"] ;
343 -> 344 ;
345 [label="Age <= 47.5\ngini = 0.278\nsamples = 6\nvalue = [5, 1]"] ;
343 -> 345 ;
346 [label="gini = 0.0\nsamples = 1\nvalue = [0, 1]"] ;
345 -> 346 ;
347 [label="gini = 0.0\nsamples = 5\nvalue = [5, 0]"] ;
345 -> 347 ;
348 [label="Age <= 45.0\ngini = 0.298\nsamples = 11\nvalue = [9, 2]"] ;
342 -> 348 ;
349 [label="Age <= 40.5\ngini = 0.375\nsamples = 8\nvalue = [6, 2]"] ;
348 -> 349 ;
350 [label="Age <= 35.0\ngini = 0.278\nsamples = 6\nvalue = [5, 1]"] ;
349 -> 350 ;
351 [label="gini = 0.444\nsamples = 3\nvalue = [2, 1]"] ;
350 -> 351 ;
352 [label="gini = 0.0\nsamples = 3\nvalue = [3, 0]"] ;
350 -> 352 ;
353 [label="gini = 0.5\nsamples = 2\nvalue = [1, 1]"] ;
349 -> 353 ;
354 [label="gini = 0.0\nsamples = 3\nvalue = [3, 0]"] ;
348 -> 354 ;
355 [label="gini = 0.0\nsamples = 19\nvalue = [19, 0]"] ;
341 -> 355 ;
356 [label="Age <= 64.0\ngini = 0.444\nsamples = 3\nvalue = [2, 1]"] ;
340 -> 356 ;
357 [label="gini = 0.0\nsamples = 1\nvalue = [0, 1]"] ;
356 -> 357 ;
358 [label="gini = 0.0\nsamples = 2\nvalue = [2, 0]"] ;
356 -> 358 ;
359 [label="Fare <= 64.998\ngini = 0.486\nsamples = 12\nvalue = [7, 5]"] ;
207 -> 359 ;
360 [label="Age <= 30.0\ngini = 0.408\nsamples = 7\nvalue = [2, 5]"] ;
359 -> 360 ;
361 [label="Age <= 27.0\ngini = 0.48\nsamples = 5\nvalue = [2, 3]"] ;
360 -> 361 ;
362 [label="Age <= 12.5\ngini = 0.375\nsamples = 4\nvalue = [1, 3]"] ;
361 -> 362 ;
363 [label="gini = 0.444\nsamples = 3\nvalue = [1, 2]"] ;
362 -> 363 ;
364 [label="gini = 0.0\nsamples = 1\nvalue = [0, 1]"] ;
362 -> 364 ;
365 [label="gini = 0.0\nsamples = 1\nvalue = [1, 0]"] ;
361 -> 365 ;
366 [label="gini = 0.0\nsamples = 2\nvalue = [0, 2]"] ;
360 -> 366 ;
367 [label="gini = 0.0\nsamples = 5\nvalue = [5, 0]"] ;
359 -> 367 ;
368 [label="Age <= 9.5\ngini = 0.408\nsamples = 70\nvalue = [50, 20]"] ;
206 -> 368 ;
369 [label="SibSp <= 2.5\ngini = 0.5\nsamples = 38\nvalue = [19, 19]"] ;
368 -> 369 ;
370 [label="Age <= -0.29\ngini = 0.1\nsamples = 19\nvalue = [1, 18]"] ;
369 -> 370 ;
371 [label="Embarked <= 2.0\ngini = 0.444\nsamples = 3\nvalue = [1, 2]"] ;
370 -> 371 ;
372 [label="gini = 0.0\nsamples = 2\nvalue = [0, 2]"] ;
371 -> 372 ;
373 [label="gini = 0.0\nsamples = 1\nvalue = [1, 0]"] ;
371 -> 373 ;
374 [label="gini = 0.0\nsamples = 16\nvalue = [0, 16]"] ;
370 -> 374 ;
375 [label="Age <= 2.5\ngini = 0.1\nsamples = 19\nvalue = [18, 1]"] ;
369 -> 375 ;
376 [label="gini = 0.0\nsamples = 10\nvalue = [10, 0]"] ;
375 -> 376 ;
377 [label="Age <= 3.5\ngini = 0.198\nsamples = 9\nvalue = [8, 1]"] ;
375 -> 377 ;
378 [label="gini = 0.0\nsamples = 1\nvalue = [0, 1]"] ;
377 -> 378 ;
379 [label="gini = 0.0\nsamples = 8\nvalue = [8, 0]"] ;
377 -> 379 ;
380 [label="Embarked <= 1.5\ngini = 0.061\nsamples = 32\nvalue = [31, 1]"] ;
368 -> 380 ;
381 [label="Age <= 18.5\ngini = 0.32\nsamples = 5\nvalue = [4, 1]"] ;
380 -> 381 ;
382 [label="gini = 0.0\nsamples = 2\nvalue = [2, 0]"] ;
381 -> 382 ;
383 [label="Pclass <= 2.5\ngini = 0.444\nsamples = 3\nvalue = [2, 1]"] ;
381 -> 383 ;
384 [label="gini = 0.0\nsamples = 2\nvalue = [2, 0]"] ;
383 -> 384 ;
385 [label="gini = 0.0\nsamples = 1\nvalue = [0, 1]"] ;
383 -> 385 ;
386 [label="gini = 0.0\nsamples = 27\nvalue = [27, 0]"] ;
380 -> 386 ;
}
